<?xml version="1.0"?>
<!-- DTD for the XMLBIF 0.3 format -->
<!DOCTYPE BIF [
	<!ELEMENT BIF ( NETWORK )*>
	      <!ATTLIST BIF VERSION CDATA #REQUIRED>
	<!ELEMENT NETWORK ( NAME, ( PROPERTY | VARIABLE | DEFINITION )* )>
	<!ELEMENT NAME (#PCDATA)>
	<!ELEMENT VARIABLE ( NAME, ( OUTCOME |  PROPERTY )* ) >
	      <!ATTLIST VARIABLE TYPE (nature|decision|utility) "nature">
	<!ELEMENT OUTCOME (#PCDATA)>
	<!ELEMENT DEFINITION ( FOR | GIVEN | TABLE | PROPERTY )* >
	<!ELEMENT FOR (#PCDATA)>
	<!ELEMENT GIVEN (#PCDATA)>
	<!ELEMENT TABLE (#PCDATA)>
	<!ELEMENT PROPERTY (#PCDATA)>
]>


<BIF VERSION="0.3">
<NETWORK>
<NAME>Data_Extract_From_World_Development_Indicators_Data-weka.filters.unsupervised.instance.SubsetByExpression-ECLASS is &apos;United States&apos;-weka.filters.unsupervised.attribute.Remove-R1-weka.filters.unsupervised.attribute.Remove-R1-weka.filters.unsupervised.attribute.Remove-R1-weka.filters.unsupervised.attribute.Remove-R1-weka.filters.unsupervised.attribute.Remove-R1-weka.filters.unsupervised.attribute.Remove-R1-weka.filters.unsupervised.attribute.Remove-R1-weka.filters.unsupervised.attribute.Remove-R1-weka.filters.unsupervised.attribute.Remove-R1-weka.filters.unsupervised.attribute.Remove-R1-weka.filters.unsupervised.attribute.Remove-R1-weka.filters.unsupervised.attribute.Remove-R1-weka.filters.unsupervised.attribute.Remove-R1-weka.filters.unsupervised.attribute.Remove-R1-weka.filters.unsupervised.attribute.Remove-R1-weka.filters.unsupervised.attribute.Remove-R1-weka.filters.unsupervised.attribute.Remove-R1-weka.filters.unsupervised.attribute.Remove-R1-weka.filters.unsupervised.attribute.Remove-R2-weka.filters.unsupervised.attribute.Remove-R2-weka.filters.unsupervised.attribute.Remove-R6-weka.filters.unsupervised.attribute.Discretize-B3-M-1.0-R1-unset-class-temporarily-weka.filters.unsupervised.attribute.Discretize-B3-M-1.0-R2-unset-class-temporarily-weka.filters.unsupervised.attribute.Discretize-B3-M-1.0-R3-unset-class-temporarily-weka.filters.unsupervised.attribute.Discretize-B3-M-1.0-R4-unset-class-temporarily-weka.filters.unsupervised.attribute.Discretize-B3-M-1.0-R5-unset-class-temporarily-weka.filters.unsupervised.attribute.Discretize-B3-M-1.0-R6-unset-class-temporarily-weka.filters.unsupervised.attribute.Discretize-B3-M-1.0-R7-unset-class-temporarily-weka.filters.unsupervised.attribute.Discretize-B3-M-1.0-R8-unset-class-temporarily-weka.filters.unsupervised.attribute.Discretize-B3-M-1.0-R9-unset-class-temporarily-weka.filters.unsupervised.attribute.Discretize-B3-M-1.0-R10-unset-class-temporarily-weka.filters.unsupervised.attribute.Discretize-B3-M-1.0-R11-unset-class-temporarily-weka.filters.unsupervised.attribute.Discretize-B3-M-1.0-R12-unset-class-temporarily-weka.filters.unsupervised.attribute.Discretize-B3-M-1.0-R13-unset-class-temporarily-weka.filters.unsupervised.attribute.Discretize-B3-M-1.0-R14-unset-class-temporarily-weka.filters.unsupervised.attribute.Discretize-B3-M-1.0-R15-unset-class-temporarily-weka.filters.unsupervised.attribute.Discretize-B3-M-1.0-R16-unset-class-temporarily-weka.filters.unsupervised.attribute.Reorder-R1-16-weka.filters.unsupervised.attribute.ReplaceMissingValues</NAME>
<VARIABLE TYPE="nature">
<NAME>Previous Gross capital formation (current LCU) [NE.GDI.TOTL.CN]</NAME>
<OUTCOME>&apos;(-inf-1.079466E17]&apos;</OUTCOME>
<OUTCOME>&apos;(1.079466E17-2.157708E17]&apos;</OUTCOME>
<OUTCOME>&apos;(2.157708E17-inf)&apos;</OUTCOME>
<PROPERTY>position = (-725,0)</PROPERTY>
</VARIABLE>
<VARIABLE TYPE="nature">
<NAME>GDP (constant LCU) [NY.GDP.MKTP.KN]</NAME>
<OUTCOME>&apos;(-inf-7479363856453.979136]&apos;</OUTCOME>
<OUTCOME>&apos;(7479363856453.979136-1.188065663243329E13]&apos;</OUTCOME>
<OUTCOME>&apos;(1.188065663243329E13-inf)&apos;</OUTCOME>
<PROPERTY>position = (-435,513)</PROPERTY>
</VARIABLE>
<VARIABLE TYPE="nature">
<NAME>Exogenous spending</NAME>
<OUTCOME>&apos;(-inf-234120405933.333312]&apos;</OUTCOME>
<OUTCOME>&apos;(234120405933.333312-554087309866.666624]&apos;</OUTCOME>
<OUTCOME>&apos;(554087309866.666624-inf)&apos;</OUTCOME>
<PROPERTY>position = (-870,384)</PROPERTY>
</VARIABLE>
<VARIABLE TYPE="nature">
<NAME>Previous Compensation of employees (current LCU) [GC.XPN.COMP.CN]</NAME>
<OUTCOME>&apos;(-inf-1.35258E16]&apos;</OUTCOME>
<OUTCOME>&apos;(1.35258E16-2.69095E16]&apos;</OUTCOME>
<OUTCOME>&apos;(2.69095E16-inf)&apos;</OUTCOME>
<PROPERTY>position = (-362,0)</PROPERTY>
</VARIABLE>
<VARIABLE TYPE="nature">
<NAME>Compensation of employees (current LCU) [GC.XPN.COMP.CN]</NAME>
<OUTCOME>&apos;(-inf-1.35258E16]&apos;</OUTCOME>
<OUTCOME>&apos;(1.35258E16-2.69095E16]&apos;</OUTCOME>
<OUTCOME>&apos;(2.69095E16-inf)&apos;</OUTCOME>
<PROPERTY>position = (-76,259)</PROPERTY>
</VARIABLE>
<VARIABLE TYPE="nature">
<NAME>Net capital account (BoP, current US$) [BN.TRF.KOGT.CD]</NAME>
<OUTCOME>&apos;(-inf--413466666.666667]&apos;</OUTCOME>
<OUTCOME>&apos;(-413466666.666667-6393266666.666666]&apos;</OUTCOME>
<OUTCOME>&apos;(6393266666.666666-inf)&apos;</OUTCOME>
<PROPERTY>position = (-652,384)</PROPERTY>
</VARIABLE>
<VARIABLE TYPE="nature">
<NAME>Capital-labour ratio</NAME>
<OUTCOME>&apos;(-inf-452.143812]&apos;</OUTCOME>
<OUTCOME>&apos;(452.143812-903.45755]&apos;</OUTCOME>
<OUTCOME>&apos;(903.45755-inf)&apos;</OUTCOME>
<PROPERTY>position = (-816,256)</PROPERTY>
</VARIABLE>
<VARIABLE TYPE="nature">
<NAME>Previous Net capital account (BoP, current US$) [BN.TRF.KOGT.CD]</NAME>
<OUTCOME>&apos;(-inf--413466666.666667]&apos;</OUTCOME>
<OUTCOME>&apos;(-413466666.666667-6393266666.666666]&apos;</OUTCOME>
<OUTCOME>&apos;(6393266666.666666-inf)&apos;</OUTCOME>
<PROPERTY>position = (-725,128)</PROPERTY>
</VARIABLE>
<VARIABLE TYPE="nature">
<NAME>Final consumption expenditure (constant LCU) [NE.CON.TOTL.KN]</NAME>
<OUTCOME>&apos;(-inf-6105081554321.801216]&apos;</OUTCOME>
<OUTCOME>&apos;(6105081554321.801216-9.759919305043602E12]&apos;</OUTCOME>
<OUTCOME>&apos;(9.759919305043602E12-inf)&apos;</OUTCOME>
<PROPERTY>position = (0,384)</PROPERTY>
</VARIABLE>
<VARIABLE TYPE="nature">
<NAME>Inflation, consumer prices (annual %) [FP.CPI.TOTL.ZG]</NAME>
<OUTCOME>&apos;(-inf-2806946067.666667]&apos;</OUTCOME>
<OUTCOME>&apos;(2806946067.666667-5969438401.333334]&apos;</OUTCOME>
<OUTCOME>&apos;(5969438401.333334-inf)&apos;</OUTCOME>
<PROPERTY>position = (0,0)</PROPERTY>
</VARIABLE>
<VARIABLE TYPE="nature">
<NAME>Lending interest rate (%) [FR.INR.LEND]</NAME>
<OUTCOME>&apos;(-inf-8.456667]&apos;</OUTCOME>
<OUTCOME>&apos;(8.456667-13.663333]&apos;</OUTCOME>
<OUTCOME>&apos;(13.663333-inf)&apos;</OUTCOME>
<PROPERTY>position = (-316,258)</PROPERTY>
</VARIABLE>
<VARIABLE TYPE="nature">
<NAME>Previous Final consumption expenditure (constant LCU) [NE.CON.TOTL.KN]</NAME>
<OUTCOME>&apos;(-inf-6105081554321.801216]&apos;</OUTCOME>
<OUTCOME>&apos;(6105081554321.801216-9.759919305043602E12]&apos;</OUTCOME>
<OUTCOME>&apos;(9.759919305043602E12-inf)&apos;</OUTCOME>
<PROPERTY>position = (0,128)</PROPERTY>
</VARIABLE>
<VARIABLE TYPE="nature">
<NAME>Gross capital formation (current LCU) [NE.GDI.TOTL.CN]</NAME>
<OUTCOME>&apos;(-inf-1.079466E17]&apos;</OUTCOME>
<OUTCOME>&apos;(1.079466E17-2.157708E17]&apos;</OUTCOME>
<OUTCOME>&apos;(2.157708E17-inf)&apos;</OUTCOME>
<PROPERTY>position = (-544,256)</PROPERTY>
</VARIABLE>
<VARIABLE TYPE="nature">
<NAME>Wage and salaried workers, total (% of total employed) [SL.EMP.WORK.ZS]</NAME>
<OUTCOME>&apos;(-inf-91.333336]&apos;</OUTCOME>
<OUTCOME>&apos;(91.333336-92.366669]&apos;</OUTCOME>
<OUTCOME>&apos;(92.366669-inf)&apos;</OUTCOME>
<PROPERTY>position = (-435,384)</PROPERTY>
</VARIABLE>
<VARIABLE TYPE="nature">
<NAME>Previous Portfolio Investment, net (BoP, current US$) [BN.KLT.PTXL.CD]</NAME>
<OUTCOME>&apos;(-inf--526887000000]&apos;</OUTCOME>
<OUTCOME>&apos;(-526887000000--245820000000]&apos;</OUTCOME>
<OUTCOME>&apos;(-245820000000-inf)&apos;</OUTCOME>
<PROPERTY>position = (-362,128)</PROPERTY>
</VARIABLE>
<VARIABLE TYPE="nature">
<NAME>Portfolio Investment, net (BoP, current US$) [BN.KLT.PTXL.CD]</NAME>
<OUTCOME>&apos;(-inf--526887000000]&apos;</OUTCOME>
<OUTCOME>&apos;(-526887000000--245820000000]&apos;</OUTCOME>
<OUTCOME>&apos;(-245820000000-inf)&apos;</OUTCOME>
<PROPERTY>position = (-217,384)</PROPERTY>
</VARIABLE>
<DEFINITION>
<FOR>Previous Gross capital formation (current LCU) [NE.GDI.TOTL.CN]</FOR>
<TABLE>
0.5304347826086957 0.23478260869565218 0.23478260869565218 
</TABLE>
</DEFINITION>
<DEFINITION>
<FOR>GDP (constant LCU) [NY.GDP.MKTP.KN]</FOR>
<GIVEN>Exogenous spending</GIVEN>
<GIVEN>Net capital account (BoP, current US$) [BN.TRF.KOGT.CD]</GIVEN>
<GIVEN>Wage and salaried workers, total (% of total employed) [SL.EMP.WORK.ZS]</GIVEN>
<GIVEN>Portfolio Investment, net (BoP, current US$) [BN.KLT.PTXL.CD]</GIVEN>
<GIVEN>Final consumption expenditure (constant LCU) [NE.CON.TOTL.KN]</GIVEN>
<TABLE>
0.92 0.04 0.04 
0.3333333333333333 0.3333333333333333 0.3333333333333333 
0.3333333333333333 0.3333333333333333 0.3333333333333333 
0.3333333333333333 0.3333333333333333 0.3333333333333333 
0.3333333333333333 0.3333333333333333 0.3333333333333333 
0.3333333333333333 0.3333333333333333 0.3333333333333333 
0.3333333333333333 0.3333333333333333 0.3333333333333333 
0.09090909090909091 0.8181818181818182 0.09090909090909091 
0.3333333333333333 0.3333333333333333 0.3333333333333333 
0.3333333333333333 0.3333333333333333 0.3333333333333333 
0.3333333333333333 0.3333333333333333 0.3333333333333333 
0.3333333333333333 0.3333333333333333 0.3333333333333333 
0.3333333333333333 0.3333333333333333 0.3333333333333333 
0.3333333333333333 0.3333333333333333 0.3333333333333333 
0.3333333333333333 0.3333333333333333 0.3333333333333333 
0.3333333333333333 0.3333333333333333 0.3333333333333333 
0.3333333333333333 0.3333333333333333 0.3333333333333333 
0.3333333333333333 0.3333333333333333 0.3333333333333333 
0.3333333333333333 0.3333333333333333 0.3333333333333333 
0.3333333333333333 0.3333333333333333 0.3333333333333333 
0.3333333333333333 0.3333333333333333 0.3333333333333333 
0.3333333333333333 0.3333333333333333 0.3333333333333333 
0.3333333333333333 0.3333333333333333 0.3333333333333333 
0.3333333333333333 0.3333333333333333 0.3333333333333333 
0.3333333333333333 0.3333333333333333 0.3333333333333333 
0.3333333333333333 0.3333333333333333 0.3333333333333333 
0.3333333333333333 0.3333333333333333 0.3333333333333333 
0.3333333333333333 0.3333333333333333 0.3333333333333333 
0.3333333333333333 0.3333333333333333 0.3333333333333333 
0.3333333333333333 0.3333333333333333 0.3333333333333333 
0.3333333333333333 0.3333333333333333 0.3333333333333333 
0.3333333333333333 0.3333333333333333 0.3333333333333333 
0.3333333333333333 0.3333333333333333 0.3333333333333333 
0.9393939393939394 0.030303030303030304 0.030303030303030304 
0.06666666666666667 0.8666666666666667 0.06666666666666667 
0.2 0.2 0.6 
0.3333333333333333 0.3333333333333333 0.3333333333333333 
0.3333333333333333 0.3333333333333333 0.3333333333333333 
0.3333333333333333 0.3333333333333333 0.3333333333333333 
0.3333333333333333 0.3333333333333333 0.3333333333333333 
0.3333333333333333 0.3333333333333333 0.3333333333333333 
0.3333333333333333 0.3333333333333333 0.3333333333333333 
0.3333333333333333 0.3333333333333333 0.3333333333333333 
0.1111111111111111 0.7777777777777778 0.1111111111111111 
0.3333333333333333 0.3333333333333333 0.3333333333333333 
0.3333333333333333 0.3333333333333333 0.3333333333333333 
0.3333333333333333 0.3333333333333333 0.3333333333333333 
0.3333333333333333 0.3333333333333333 0.3333333333333333 
0.3333333333333333 0.3333333333333333 0.3333333333333333 
0.3333333333333333 0.3333333333333333 0.3333333333333333 
0.3333333333333333 0.3333333333333333 0.3333333333333333 
0.3333333333333333 0.3333333333333333 0.3333333333333333 
0.3333333333333333 0.3333333333333333 0.3333333333333333 
0.3333333333333333 0.3333333333333333 0.3333333333333333 
0.3333333333333333 0.3333333333333333 0.3333333333333333 
0.3333333333333333 0.3333333333333333 0.3333333333333333 
0.3333333333333333 0.3333333333333333 0.3333333333333333 
0.3333333333333333 0.3333333333333333 0.3333333333333333 
0.3333333333333333 0.3333333333333333 0.3333333333333333 
0.3333333333333333 0.3333333333333333 0.3333333333333333 
0.3333333333333333 0.3333333333333333 0.3333333333333333 
0.3333333333333333 0.3333333333333333 0.3333333333333333 
0.3333333333333333 0.3333333333333333 0.3333333333333333 
0.3333333333333333 0.3333333333333333 0.3333333333333333 
0.3333333333333333 0.3333333333333333 0.3333333333333333 
0.3333333333333333 0.3333333333333333 0.3333333333333333 
0.3333333333333333 0.3333333333333333 0.3333333333333333 
0.3333333333333333 0.3333333333333333 0.3333333333333333 
0.3333333333333333 0.3333333333333333 0.3333333333333333 
0.3333333333333333 0.3333333333333333 0.3333333333333333 
0.3333333333333333 0.3333333333333333 0.3333333333333333 
0.3333333333333333 0.3333333333333333 0.3333333333333333 
0.3333333333333333 0.3333333333333333 0.3333333333333333 
0.3333333333333333 0.3333333333333333 0.3333333333333333 
0.3333333333333333 0.3333333333333333 0.3333333333333333 
0.3333333333333333 0.3333333333333333 0.3333333333333333 
0.3333333333333333 0.3333333333333333 0.3333333333333333 
0.3333333333333333 0.3333333333333333 0.3333333333333333 
0.3333333333333333 0.3333333333333333 0.3333333333333333 
0.3333333333333333 0.3333333333333333 0.3333333333333333 
0.3333333333333333 0.3333333333333333 0.3333333333333333 
0.3333333333333333 0.3333333333333333 0.3333333333333333 
0.3333333333333333 0.3333333333333333 0.3333333333333333 
0.3333333333333333 0.3333333333333333 0.3333333333333333 
0.3333333333333333 0.3333333333333333 0.3333333333333333 
0.3333333333333333 0.3333333333333333 0.3333333333333333 
0.3333333333333333 0.3333333333333333 0.3333333333333333 
0.3333333333333333 0.3333333333333333 0.3333333333333333 
0.3333333333333333 0.3333333333333333 0.3333333333333333 
0.3333333333333333 0.3333333333333333 0.3333333333333333 
0.3333333333333333 0.3333333333333333 0.3333333333333333 
0.3333333333333333 0.3333333333333333 0.3333333333333333 
0.3333333333333333 0.3333333333333333 0.3333333333333333 
0.3333333333333333 0.3333333333333333 0.3333333333333333 
0.3333333333333333 0.3333333333333333 0.3333333333333333 
0.3333333333333333 0.3333333333333333 0.3333333333333333 
0.3333333333333333 0.3333333333333333 0.3333333333333333 
0.3333333333333333 0.3333333333333333 0.3333333333333333 
0.2 0.2 0.6 
0.3333333333333333 0.3333333333333333 0.3333333333333333 
0.3333333333333333 0.3333333333333333 0.3333333333333333 
0.3333333333333333 0.3333333333333333 0.3333333333333333 
0.3333333333333333 0.3333333333333333 0.3333333333333333 
0.3333333333333333 0.3333333333333333 0.3333333333333333 
0.3333333333333333 0.3333333333333333 0.3333333333333333 
0.3333333333333333 0.3333333333333333 0.3333333333333333 
0.3333333333333333 0.3333333333333333 0.3333333333333333 
0.2 0.2 0.6 
0.3333333333333333 0.3333333333333333 0.3333333333333333 
0.3333333333333333 0.3333333333333333 0.3333333333333333 
0.3333333333333333 0.3333333333333333 0.3333333333333333 
0.3333333333333333 0.3333333333333333 0.3333333333333333 
0.3333333333333333 0.3333333333333333 0.3333333333333333 
0.3333333333333333 0.3333333333333333 0.3333333333333333 
0.3333333333333333 0.3333333333333333 0.3333333333333333 
0.3333333333333333 0.3333333333333333 0.3333333333333333 
0.3333333333333333 0.3333333333333333 0.3333333333333333 
0.3333333333333333 0.3333333333333333 0.3333333333333333 
0.3333333333333333 0.3333333333333333 0.3333333333333333 
0.3333333333333333 0.3333333333333333 0.3333333333333333 
0.3333333333333333 0.3333333333333333 0.3333333333333333 
0.3333333333333333 0.3333333333333333 0.3333333333333333 
0.3333333333333333 0.3333333333333333 0.3333333333333333 
0.3333333333333333 0.3333333333333333 0.3333333333333333 
0.2 0.6 0.2 
0.3333333333333333 0.3333333333333333 0.3333333333333333 
0.3333333333333333 0.3333333333333333 0.3333333333333333 
0.3333333333333333 0.3333333333333333 0.3333333333333333 
0.2 0.2 0.6 
0.3333333333333333 0.3333333333333333 0.3333333333333333 
0.3333333333333333 0.3333333333333333 0.3333333333333333 
0.2 0.2 0.6 
0.3333333333333333 0.3333333333333333 0.3333333333333333 
0.3333333333333333 0.3333333333333333 0.3333333333333333 
0.2 0.2 0.6 
0.3333333333333333 0.3333333333333333 0.3333333333333333 
0.3333333333333333 0.3333333333333333 0.3333333333333333 
0.3333333333333333 0.3333333333333333 0.3333333333333333 
0.3333333333333333 0.3333333333333333 0.3333333333333333 
0.3333333333333333 0.3333333333333333 0.3333333333333333 
0.3333333333333333 0.3333333333333333 0.3333333333333333 
0.3333333333333333 0.3333333333333333 0.3333333333333333 
0.3333333333333333 0.3333333333333333 0.3333333333333333 
0.3333333333333333 0.3333333333333333 0.3333333333333333 
0.3333333333333333 0.3333333333333333 0.3333333333333333 
0.3333333333333333 0.3333333333333333 0.3333333333333333 
0.3333333333333333 0.3333333333333333 0.3333333333333333 
0.3333333333333333 0.3333333333333333 0.3333333333333333 
0.3333333333333333 0.3333333333333333 0.3333333333333333 
0.3333333333333333 0.3333333333333333 0.3333333333333333 
0.3333333333333333 0.3333333333333333 0.3333333333333333 
0.3333333333333333 0.3333333333333333 0.3333333333333333 
0.3333333333333333 0.3333333333333333 0.3333333333333333 
0.3333333333333333 0.3333333333333333 0.3333333333333333 
0.3333333333333333 0.3333333333333333 0.3333333333333333 
0.3333333333333333 0.3333333333333333 0.3333333333333333 
0.3333333333333333 0.3333333333333333 0.3333333333333333 
0.3333333333333333 0.3333333333333333 0.3333333333333333 
0.14285714285714285 0.14285714285714285 0.7142857142857143 
0.3333333333333333 0.3333333333333333 0.3333333333333333 
0.3333333333333333 0.3333333333333333 0.3333333333333333 
0.3333333333333333 0.3333333333333333 0.3333333333333333 
0.3333333333333333 0.3333333333333333 0.3333333333333333 
0.3333333333333333 0.3333333333333333 0.3333333333333333 
0.3333333333333333 0.3333333333333333 0.3333333333333333 
0.3333333333333333 0.3333333333333333 0.3333333333333333 
0.3333333333333333 0.3333333333333333 0.3333333333333333 
0.3333333333333333 0.3333333333333333 0.3333333333333333 
0.3333333333333333 0.3333333333333333 0.3333333333333333 
0.3333333333333333 0.3333333333333333 0.3333333333333333 
0.3333333333333333 0.3333333333333333 0.3333333333333333 
0.3333333333333333 0.3333333333333333 0.3333333333333333 
0.3333333333333333 0.3333333333333333 0.3333333333333333 
0.3333333333333333 0.3333333333333333 0.3333333333333333 
0.3333333333333333 0.3333333333333333 0.3333333333333333 
0.3333333333333333 0.3333333333333333 0.3333333333333333 
0.3333333333333333 0.3333333333333333 0.3333333333333333 
0.3333333333333333 0.3333333333333333 0.3333333333333333 
0.3333333333333333 0.3333333333333333 0.3333333333333333 
0.3333333333333333 0.3333333333333333 0.3333333333333333 
0.3333333333333333 0.3333333333333333 0.3333333333333333 
0.3333333333333333 0.3333333333333333 0.3333333333333333 
0.2 0.2 0.6 
0.3333333333333333 0.3333333333333333 0.3333333333333333 
0.3333333333333333 0.3333333333333333 0.3333333333333333 
0.2 0.2 0.6 
0.3333333333333333 0.3333333333333333 0.3333333333333333 
0.3333333333333333 0.3333333333333333 0.3333333333333333 
0.3333333333333333 0.3333333333333333 0.3333333333333333 
0.3333333333333333 0.3333333333333333 0.3333333333333333 
0.3333333333333333 0.3333333333333333 0.3333333333333333 
0.3333333333333333 0.3333333333333333 0.3333333333333333 
0.3333333333333333 0.3333333333333333 0.3333333333333333 
0.3333333333333333 0.3333333333333333 0.3333333333333333 
0.3333333333333333 0.3333333333333333 0.3333333333333333 
0.3333333333333333 0.3333333333333333 0.3333333333333333 
0.3333333333333333 0.3333333333333333 0.3333333333333333 
0.3333333333333333 0.3333333333333333 0.3333333333333333 
0.3333333333333333 0.3333333333333333 0.3333333333333333 
0.3333333333333333 0.3333333333333333 0.3333333333333333 
0.3333333333333333 0.3333333333333333 0.3333333333333333 
0.3333333333333333 0.3333333333333333 0.3333333333333333 
0.3333333333333333 0.3333333333333333 0.3333333333333333 
0.3333333333333333 0.3333333333333333 0.3333333333333333 
0.3333333333333333 0.3333333333333333 0.3333333333333333 
0.3333333333333333 0.3333333333333333 0.3333333333333333 
0.3333333333333333 0.3333333333333333 0.3333333333333333 
0.3333333333333333 0.3333333333333333 0.3333333333333333 
0.3333333333333333 0.3333333333333333 0.3333333333333333 
0.1111111111111111 0.1111111111111111 0.7777777777777778 
0.3333333333333333 0.3333333333333333 0.3333333333333333 
0.3333333333333333 0.3333333333333333 0.3333333333333333 
0.2 0.2 0.6 
0.3333333333333333 0.3333333333333333 0.3333333333333333 
0.3333333333333333 0.3333333333333333 0.3333333333333333 
0.2 0.2 0.6 
0.3333333333333333 0.3333333333333333 0.3333333333333333 
0.3333333333333333 0.3333333333333333 0.3333333333333333 
0.3333333333333333 0.3333333333333333 0.3333333333333333 
0.3333333333333333 0.3333333333333333 0.3333333333333333 
0.3333333333333333 0.3333333333333333 0.3333333333333333 
0.3333333333333333 0.3333333333333333 0.3333333333333333 
0.3333333333333333 0.3333333333333333 0.3333333333333333 
0.3333333333333333 0.3333333333333333 0.3333333333333333 
0.3333333333333333 0.3333333333333333 0.3333333333333333 
0.3333333333333333 0.3333333333333333 0.3333333333333333 
0.3333333333333333 0.3333333333333333 0.3333333333333333 
0.3333333333333333 0.3333333333333333 0.3333333333333333 
0.3333333333333333 0.3333333333333333 0.3333333333333333 
0.3333333333333333 0.3333333333333333 0.3333333333333333 
0.3333333333333333 0.3333333333333333 0.3333333333333333 
0.3333333333333333 0.3333333333333333 0.3333333333333333 
0.3333333333333333 0.3333333333333333 0.3333333333333333 
0.3333333333333333 0.3333333333333333 0.3333333333333333 
0.3333333333333333 0.3333333333333333 0.3333333333333333 
0.3333333333333333 0.3333333333333333 0.3333333333333333 
0.2 0.2 0.6 
0.3333333333333333 0.3333333333333333 0.3333333333333333 
0.3333333333333333 0.3333333333333333 0.3333333333333333 
0.3333333333333333 0.3333333333333333 0.3333333333333333 
0.3333333333333333 0.3333333333333333 0.3333333333333333 
0.3333333333333333 0.3333333333333333 0.3333333333333333 
0.3333333333333333 0.3333333333333333 0.3333333333333333 
</TABLE>
</DEFINITION>
<DEFINITION>
<FOR>Exogenous spending</FOR>
<TABLE>
0.7043478260869566 0.14782608695652175 0.14782608695652175 
</TABLE>
</DEFINITION>
<DEFINITION>
<FOR>Previous Compensation of employees (current LCU) [GC.XPN.COMP.CN]</FOR>
<TABLE>
0.7739130434782608 0.06086956521739131 0.16521739130434782 
</TABLE>
</DEFINITION>
<DEFINITION>
<FOR>Compensation of employees (current LCU) [GC.XPN.COMP.CN]</FOR>
<GIVEN>Inflation, consumer prices (annual %) [FP.CPI.TOTL.ZG]</GIVEN>
<GIVEN>Previous Compensation of employees (current LCU) [GC.XPN.COMP.CN]</GIVEN>
<TABLE>
0.9534883720930233 0.023255813953488372 0.023255813953488372 
0.1111111111111111 0.5555555555555556 0.3333333333333333 
0.3333333333333333 0.06666666666666667 0.6 
0.8048780487804879 0.07317073170731707 0.12195121951219512 
0.3333333333333333 0.3333333333333333 0.3333333333333333 
0.3333333333333333 0.1111111111111111 0.5555555555555556 
0.8461538461538461 0.07692307692307693 0.07692307692307693 
0.3333333333333333 0.3333333333333333 0.3333333333333333 
0.3333333333333333 0.3333333333333333 0.3333333333333333 
</TABLE>
</DEFINITION>
<DEFINITION>
<FOR>Net capital account (BoP, current US$) [BN.TRF.KOGT.CD]</FOR>
<GIVEN>Compensation of employees (current LCU) [GC.XPN.COMP.CN]</GIVEN>
<GIVEN>Gross capital formation (current LCU) [NE.GDI.TOTL.CN]</GIVEN>
<GIVEN>Capital-labour ratio</GIVEN>
<TABLE>
0.05084745762711865 0.9322033898305084 0.01694915254237288 
0.3333333333333333 0.3333333333333333 0.3333333333333333 
0.3333333333333333 0.3333333333333333 0.3333333333333333 
0.3333333333333333 0.6296296296296297 0.037037037037037035 
0.3333333333333333 0.3333333333333333 0.3333333333333333 
0.2 0.6 0.2 
0.42857142857142855 0.42857142857142855 0.14285714285714285 
0.2 0.6 0.2 
0.3333333333333333 0.3333333333333333 0.3333333333333333 
0.3333333333333333 0.3333333333333333 0.3333333333333333 
0.3333333333333333 0.3333333333333333 0.3333333333333333 
0.3333333333333333 0.3333333333333333 0.3333333333333333 
0.3333333333333333 0.3333333333333333 0.3333333333333333 
0.3333333333333333 0.3333333333333333 0.3333333333333333 
0.3333333333333333 0.3333333333333333 0.3333333333333333 
0.3333333333333333 0.3333333333333333 0.3333333333333333 
0.3333333333333333 0.3333333333333333 0.3333333333333333 
0.3333333333333333 0.3333333333333333 0.3333333333333333 
0.14285714285714285 0.7142857142857143 0.14285714285714285 
0.3333333333333333 0.3333333333333333 0.3333333333333333 
0.3333333333333333 0.3333333333333333 0.3333333333333333 
0.3333333333333333 0.3333333333333333 0.3333333333333333 
0.3333333333333333 0.3333333333333333 0.3333333333333333 
0.3333333333333333 0.3333333333333333 0.3333333333333333 
0.17647058823529413 0.5294117647058824 0.29411764705882354 
0.3333333333333333 0.3333333333333333 0.3333333333333333 
0.3333333333333333 0.3333333333333333 0.3333333333333333 
</TABLE>
</DEFINITION>
<DEFINITION>
<FOR>Capital-labour ratio</FOR>
<TABLE>
0.9478260869565217 0.02608695652173913 0.02608695652173913 
</TABLE>
</DEFINITION>
<DEFINITION>
<FOR>Previous Net capital account (BoP, current US$) [BN.TRF.KOGT.CD]</FOR>
<TABLE>
0.14782608695652175 0.7913043478260869 0.06086956521739131 
</TABLE>
</DEFINITION>
<DEFINITION>
<FOR>Final consumption expenditure (constant LCU) [NE.CON.TOTL.KN]</FOR>
<GIVEN>Lending interest rate (%) [FR.INR.LEND]</GIVEN>
<GIVEN>Compensation of employees (current LCU) [GC.XPN.COMP.CN]</GIVEN>
<GIVEN>Previous Final consumption expenditure (constant LCU) [NE.CON.TOTL.KN]</GIVEN>
<TABLE>
0.9459459459459459 0.02702702702702703 0.02702702702702703 
0.047619047619047616 0.8095238095238095 0.14285714285714285 
0.3333333333333333 0.1111111111111111 0.5555555555555556 
0.3333333333333333 0.3333333333333333 0.3333333333333333 
0.3333333333333333 0.3333333333333333 0.3333333333333333 
0.1111111111111111 0.1111111111111111 0.7777777777777778 
0.3333333333333333 0.3333333333333333 0.3333333333333333 
0.3333333333333333 0.3333333333333333 0.3333333333333333 
0.047619047619047616 0.047619047619047616 0.9047619047619048 
0.7333333333333333 0.2 0.06666666666666667 
0.07692307692307693 0.8461538461538461 0.07692307692307693 
0.2 0.2 0.6 
0.3333333333333333 0.3333333333333333 0.3333333333333333 
0.3333333333333333 0.3333333333333333 0.3333333333333333 
0.3333333333333333 0.3333333333333333 0.3333333333333333 
0.3333333333333333 0.3333333333333333 0.3333333333333333 
0.3333333333333333 0.3333333333333333 0.3333333333333333 
0.3333333333333333 0.3333333333333333 0.3333333333333333 
0.7777777777777778 0.1111111111111111 0.1111111111111111 
0.3333333333333333 0.3333333333333333 0.3333333333333333 
0.3333333333333333 0.3333333333333333 0.3333333333333333 
0.3333333333333333 0.3333333333333333 0.3333333333333333 
0.3333333333333333 0.3333333333333333 0.3333333333333333 
0.3333333333333333 0.3333333333333333 0.3333333333333333 
0.3333333333333333 0.3333333333333333 0.3333333333333333 
0.3333333333333333 0.3333333333333333 0.3333333333333333 
0.3333333333333333 0.3333333333333333 0.3333333333333333 
</TABLE>
</DEFINITION>
<DEFINITION>
<FOR>Inflation, consumer prices (annual %) [FP.CPI.TOTL.ZG]</FOR>
<TABLE>
0.5130434782608696 0.391304347826087 0.09565217391304348 
</TABLE>
</DEFINITION>
<DEFINITION>
<FOR>Lending interest rate (%) [FR.INR.LEND]</FOR>
<TABLE>
0.7217391304347827 0.21739130434782608 0.06086956521739131 
</TABLE>
</DEFINITION>
<DEFINITION>
<FOR>Previous Final consumption expenditure (constant LCU) [NE.CON.TOTL.KN]</FOR>
<TABLE>
0.4608695652173913 0.25217391304347825 0.28695652173913044 
</TABLE>
</DEFINITION>
<DEFINITION>
<FOR>Gross capital formation (current LCU) [NE.GDI.TOTL.CN]</FOR>
<GIVEN>Previous Gross capital formation (current LCU) [NE.GDI.TOTL.CN]</GIVEN>
<TABLE>
0.9047619047619048 0.047619047619047616 0.047619047619047616 
0.034482758620689655 0.8620689655172413 0.10344827586206896 
0.1724137931034483 0.034482758620689655 0.7931034482758621 
</TABLE>
</DEFINITION>
<DEFINITION>
<FOR>Wage and salaried workers, total (% of total employed) [SL.EMP.WORK.ZS]</FOR>
<TABLE>
0.6521739130434783 0.09565217391304348 0.25217391304347825 
</TABLE>
</DEFINITION>
<DEFINITION>
<FOR>Previous Portfolio Investment, net (BoP, current US$) [BN.KLT.PTXL.CD]</FOR>
<TABLE>
0.11304347826086956 0.09565217391304348 0.7913043478260869 
</TABLE>
</DEFINITION>
<DEFINITION>
<FOR>Portfolio Investment, net (BoP, current US$) [BN.KLT.PTXL.CD]</FOR>
<GIVEN>Previous Net capital account (BoP, current US$) [BN.TRF.KOGT.CD]</GIVEN>
<GIVEN>Previous Portfolio Investment, net (BoP, current US$) [BN.KLT.PTXL.CD]</GIVEN>
<TABLE>
0.6 0.2 0.2 
0.6 0.2 0.2 
0.06666666666666667 0.3333333333333333 0.6 
0.45454545454545453 0.09090909090909091 0.45454545454545453 
0.14285714285714285 0.7142857142857143 0.14285714285714285 
0.30864197530864196 0.012345679012345678 0.6790123456790124 
0.6 0.2 0.2 
0.14285714285714285 0.42857142857142855 0.42857142857142855 
0.3333333333333333 0.3333333333333333 0.3333333333333333 
</TABLE>
</DEFINITION>
</NETWORK>
</BIF>
